digraph Tree {
node [shape=box, style="filled, rounded", color="black", fontname="helvetica"] ;
edge [fontname="helvetica"] ;
0 [label=<parsed_duration &le; 74.5<br/>gini = 0.917<br/>samples = 6309<br/>value = [525.75, 525.75, 525.75, 525.75, 525.75, 525.75, 525.75<br/>525.75, 525.75, 525.75, 525.75, 525.75]<br/>class = R>, fillcolor="#ffffff"] ;
1 [label=<Romantic Movies &le; 0.5<br/>gini = 0.849<br/>samples = 2389<br/>value = [31.864, 0.0, 11.683, 1.366, 1.669, 198.518, 335.512<br/>235.41, 272.233, 482.419, 445.079, 262.875]<br/>class = TV-Y>, fillcolor="#fefbfe"] ;
0 -> 1 [labeldistance=2.5, labelangle=45, headlabel="True"] ;
2 [label=<release_year &le; 2017.5<br/>gini = 0.824<br/>samples = 2209<br/>value = [31.864, 0.0, 11.683, 1.366, 1.669, 182.174, 300.923<br/>217.25, 256.069, 450.643, 420.044, 0.0]<br/>class = TV-Y>, fillcolor="#fefbfe"] ;
1 -> 2 ;
3 [label=<country_encoded &le; 646.5<br/>gini = 0.815<br/>samples = 1042<br/>value = [15.932, 0.0, 7.01, 0.0, 1.669, 101.132, 162.567, 75.78<br/>156.534, 202.212, 278.175, 0.0]<br/>class = TV-Y7>, fillcolor="#fdecf6"] ;
2 -> 3 ;
4 [label=<gini = 0.82<br/>samples = 1015<br/>value = [15.932, 0.0, 7.01, 0.0, 1.669, 99.429, 159.109, 74.883<br/>153.131, 199.323, 244.794, 0.0]<br/>class = TV-Y7>, fillcolor="#fdf3f9"] ;
3 -> 4 ;
5 [label=<gini = 0.45<br/>samples = 27<br/>value = [0.0, 0.0, 0.0, 0.0, 0.0, 1.703, 3.459, 0.897, 3.403<br/>2.889, 33.381, 0.0]<br/>class = TV-Y7>, fillcolor="#ed73ba"] ;
3 -> 5 ;
6 [label=<type &le; 0.5<br/>gini = 0.819<br/>samples = 1167<br/>value = [15.932, 0.0, 4.673, 1.366, 0.0, 81.042, 138.355, 141.47<br/>99.535, 248.431, 141.869, 0.0]<br/>class = TV-Y>, fillcolor="#f9e2fb"] ;
2 -> 6 ;
7 [label=<gini = 0.785<br/>samples = 232<br/>value = [15.932, 0.0, 4.673, 1.366, 0.0, 11.577, 51.883, 23.765<br/>33.178, 86.662, 11.127, 0.0]<br/>class = TV-Y>, fillcolor="#f8dafa"] ;
6 -> 7 ;
8 [label=<gini = 0.815<br/>samples = 935<br/>value = [0.0, 0.0, 0.0, 0.0, 0.0, 69.464, 86.472, 117.705<br/>66.357, 161.769, 130.742, 0.0]<br/>class = TV-Y>, fillcolor="#fdf3fd"] ;
6 -> 8 ;
9 [label=<release_year &le; 2014.5<br/>gini = 0.556<br/>samples = 180<br/>value = [0.0, 0.0, 0.0, 0.0, 0.0, 16.345, 34.589, 18.16, 16.164<br/>31.776, 25.036, 262.875]<br/>class = TV-Y7-FV>, fillcolor="#ef858e"] ;
1 -> 9 ;
10 [label=<release_year &le; 2011.5<br/>gini = 0.182<br/>samples = 32<br/>value = [0.0, 0.0, 0.0, 0.0, 0.0, 3.065, 3.459, 2.466, 2.552<br/>2.889, 13.909, 262.875]<br/>class = TV-Y7-FV>, fillcolor="#e84d5a"] ;
9 -> 10 ;
11 [label=<gini = 0.574<br/>samples = 16<br/>value = [0.0, 0.0, 0.0, 0.0, 0.0, 1.362, 3.459, 1.345, 0.851<br/>0.0, 11.127, 0.0]<br/>class = TV-Y7>, fillcolor="#f198cc"] ;
10 -> 11 ;
12 [label=<gini = 0.073<br/>samples = 16<br/>value = [0.0, 0.0, 0.0, 0.0, 0.0, 1.703, 0.0, 1.121, 1.701<br/>2.889, 2.782, 262.875]<br/>class = TV-Y7-FV>, fillcolor="#e6404e"] ;
10 -> 12 ;
13 [label=<parsed_duration &le; 1.5<br/>gini = 0.804<br/>samples = 148<br/>value = [0.0, 0.0, 0.0, 0.0, 0.0, 13.28, 31.13, 15.694, 13.612<br/>28.887, 11.127, 0.0]<br/>class = TV-G>, fillcolor="#fafcfe"] ;
9 -> 13 ;
14 [label=<gini = 0.775<br/>samples = 77<br/>value = [0.0, 0.0, 0.0, 0.0, 0.0, 6.81, 17.294, 9.641, 5.104<br/>2.889, 5.563, 0.0]<br/>class = TV-G>, fillcolor="#d7ebfa"] ;
13 -> 14 ;
15 [label=<gini = 0.762<br/>samples = 71<br/>value = [0.0, 0.0, 0.0, 0.0, 0.0, 6.47, 13.836, 6.053, 8.507<br/>25.999, 5.563, 0.0]<br/>class = TV-Y>, fillcolor="#f6d1f9"] ;
13 -> 15 ;
16 [label=<parsed_duration &le; 179.5<br/>gini = 0.895<br/>samples = 3920<br/>value = [493.886, 525.75, 514.067, 524.384, 524.081, 327.232<br/>190.238, 290.34, 253.517, 43.331, 80.671, 262.875]<br/>class = NC-17>, fillcolor="#ffffff"] ;
0 -> 16 [labeldistance=2.5, labelangle=-45, headlabel="False"] ;
17 [label=<Sci-Fi & Fantasy &le; 0.5<br/>gini = 0.895<br/>samples = 3897<br/>value = [477.955, 262.875, 514.067, 520.288, 522.412, 322.805<br/>190.238, 290.115, 251.816, 43.331, 80.671, 262.875]<br/>class = R>, fillcolor="#ffffff"] ;
16 -> 17 ;
18 [label=<country_encoded &le; 508.5<br/>gini = 0.885<br/>samples = 3792<br/>value = [446.091, 0.0, 495.373, 512.094, 512.398, 314.633, 186.78<br/>280.026, 246.711, 43.331, 80.671, 262.875]<br/>class = R>, fillcolor="#ffffff"] ;
17 -> 18 ;
19 [label=<gini = 0.882<br/>samples = 2169<br/>value = [79.659, 0.0, 100.477, 77.838, 117.668, 266.28, 121.061<br/>193.933, 181.205, 17.332, 58.417, 131.438]<br/>class = TV-14>, fillcolor="#f3fdfc"] ;
18 -> 19 ;
20 [label=<gini = 0.838<br/>samples = 1623<br/>value = [366.432, 0.0, 394.897, 434.256, 394.73, 48.353, 65.719<br/>86.093, 65.506, 25.999, 22.254, 131.438]<br/>class = PG-13>, fillcolor="#fbfefa"] ;
18 -> 20 ;
21 [label=<parsed_duration &le; 83.5<br/>gini = 0.449<br/>samples = 105<br/>value = [31.864, 262.875, 18.693, 8.194, 10.014, 8.172, 3.459<br/>10.089, 5.104, 0.0, 0.0, 0.0]<br/>class = NC-17>, fillcolor="#ede373"] ;
17 -> 21 ;
22 [label=<gini = 0.143<br/>samples = 9<br/>value = [15.932, 262.875, 2.337, 1.366, 0.835, 0.681, 0.0, 0.448<br/>0.0, 0.0, 0.0, 0.0]<br/>class = NC-17>, fillcolor="#e7da49"] ;
21 -> 22 ;
23 [label=<gini = 0.847<br/>samples = 96<br/>value = [15.932, 0.0, 16.357, 6.828, 9.18, 7.491, 3.459, 9.641<br/>5.104, 0.0, 0.0, 0.0]<br/>class = PG>, fillcolor="#fefffe"] ;
21 -> 23 ;
24 [label=<British TV Shows &le; 0.5<br/>gini = 0.18<br/>samples = 23<br/>value = [15.932, 262.875, 0.0, 4.097, 1.669, 4.427, 0.0, 0.224<br/>1.701, 0.0, 0.0, 0.0]<br/>class = NC-17>, fillcolor="#e8db4d"] ;
16 -> 24 ;
25 [label=<release_year &le; 1972.0<br/>gini = 0.624<br/>samples = 22<br/>value = [15.932, 0.0, 0.0, 4.097, 1.669, 4.427, 0.0, 0.224<br/>1.701, 0.0, 0.0, 0.0]<br/>class = G>, fillcolor="#f2c29f"] ;
24 -> 25 ;
26 [label=<gini = 0.041<br/>samples = 2<br/>value = [15.932, 0.0, 0.0, 0.0, 0.0, 0.341, 0.0, 0.0, 0.0<br/>0.0, 0.0, 0.0]<br/>class = G>, fillcolor="#e6843d"] ;
25 -> 26 ;
27 [label=<gini = 0.717<br/>samples = 20<br/>value = [0.0, 0.0, 0.0, 4.097, 1.669, 4.086, 0.0, 0.224, 1.701<br/>0.0, 0.0, 0.0]<br/>class = PG-13>, fillcolor="#ffffff"] ;
25 -> 27 ;
28 [label=<gini = 0.0<br/>samples = 1<br/>value = [0.0, 262.875, 0.0, 0.0, 0.0, 0.0, 0.0, 0.0, 0.0, 0.0<br/>0.0, 0.0]<br/>class = NC-17>, fillcolor="#e5d739"] ;
24 -> 28 ;
}